function [y1] = NNFunc(xin)
%MYNEURALNETWORKFUNCTION neural network simulation function.
%
% Generated by Neural Network Toolbox function genFunction, 09-Jun-2016 18:16:34.
%
% [y1] = myNeuralNetworkFunction(x1) takes these arguments:
%   x = 10xQ matrix, input #1
% and returns:
%   y = 1xQ matrix, output #1
% where Q is the number of samples.

%#ok<*RPMT0>

% ===== NEURAL NETWORK CONSTANTS =====
x1 = xin';

% Input 1
x1_step1_xoffset = [27.4;45490;11648;51701;1049.6;17952;8718;118800;19786;59540;33384];
x1_step1_gain = [0.000234780362970441;3.82409177820268e-05;0.000366837857666911;2.80037525028354e-05;0.00583600817041144;0.000133931560972343;0.000465116279069767;2.49298846992833e-05;0.000125549278091651;2.4515812699191e-05;3.78472485050337e-05];
x1_step1_ymin = -1;

% Layer 1
b1 = [-1.2644298148209936;0.8727882570911607;-3.3176055951093781;4.8614269041128404;-0.32887867969208157;-3.6636181116582622;-1.9127378230676126;-2.9699724053900605;1.3475483400360497;1.5690077588346865;-0.23225965547766567;0.12815271994516098;1.7054935878997319;-0.10358671736941531;-3.4675448194468279;3.1768096168117155;-2.161617871618156;-1.9407045862902983;0.64975684769442144;-4.2349660603192953;0.77948727118876759;-0.26165640985530603;-3.8206876185951248;2.9411056477797644;2.7924945440098283;1.5262813654334224;-0.65614824594657528;-1.3760743450648996;-0.79483267100996635;3.9171170372530537;0.67730092040410983;-1.9035732578338229;-0.20878262764687872;-3.2506584907843434;0.95095111397520693;2.8791698634766294;2.5276555848301032;-3.5109797324318159;-0.82646879451437094;-3.9824246598469029;-3.0008274634959875;1.3045578017980695;-0.5904041398253691;-0.60049091014903511;-1.1352951079435949;-1.364319644028926;1.1395708667650257;0.72483989072182053;0.73556113098242248;-1.3095297871272937;0.049205622730470237;-1.621338049676482;-0.14783533672860291;-2.3895709009552109;0.18303196913854158;0.34504298336160061;-0.19383498314803976;1.581746479269414;-0.36139395259276397;-0.57678054377716947;-2.2330990436235032;-0.75009266767471727;-0.65325107452481523;-3.8222457712008886;2.5701330308970154;2.7824040021140886;2.8701006012054457;1.0462081709615452;-2.6127693391702707;-1.7688306674720462;-0.69175292920691223;-1.6158980672342271;-3.4731972435563709;-2.0461000493776411;-2.9608933083574076;-2.5140914246752724;-2.1773461450050808;-2.1523474539127956;5.3421342493910418;1.2848632844783165;-0.6138209294875584;1.4080088851491868;1.820005679803365;1.9494440770125918;0.10803057788918041;4.2776805714710013;0.48195402851403085;0.19627058897454686;2.256587116084654;3.8255350337865264;-2.3834565023741048;-4.8549472704459351;-1.1711014388927339;-1.5131395504101184;-1.6818419710666761;-0.57352851144662687;-3.6733892201194172;2.3923974004496205;-3.2580651456565706;-3.3971395223792489];
IW1_1 = [-0.30213930719554905 3.5529447093891373 -1.3774811400631337 0.31830055730887047 1.5672751968177039 -7.8969179284758022 2.20047523789823 3.7889165546687029 -0.29400421151950323 -1.4395881378969839 -2.7255929020079943;0.9583341876158622 5.3619070016779053 0.026458681358584764 2.033874541429491 -0.62302010937353858 6.7966021306354518 -0.33501126440241585 -2.2068633158517383 -0.8316940807825014 -2.2357530987128458 -1.8725421361944141;4.5679138453981158 2.4466793694763127 -5.8227698443160234 5.0383065287759319 -2.7219175964711795 7.4189727257435374 -0.5790889766233448 -0.3541835380669171 -3.7978574977434643 -1.3169866482721824 1.5365731662620312;0.54157217153535764 -0.3217154657006473 1.6125880905795316 1.7595553613380248 -1.983871319352577 -2.327604782161742 -1.1758139125430236 7.6235167144676232 3.4205795156880523 -5.6424270020036387 4.6564839286542883;-4.1085807268981753 -1.1306797264374546 -0.041032553090960835 9.6656679020467671 -5.5270310254020432 -2.9547892088063765 -3.4667099125182177 2.0511762226314403 -3.0060689166864969 1.8555410364301987 -0.72456353923456618;2.1393720383326622 -1.506915575113412 0.49457685313449884 3.9978136921594833 -3.573367483897167 0.84727117315425449 -1.2069146215183979 -5.4625766334373393 3.2570295526339157 3.7721508421511944 -3.613623955265715;-2.1131769069194255 2.0968640835161954 1.1718880673108008 0.73673584048695206 -0.12836231644900029 0.50791594507634141 3.0571239222915487 -1.4610956496518075 3.7821382551007274 -2.3094150735456624 -2.0284863644296149;1.6103894762653361 -6.5953324349484852 -4.5947404846850199 -3.6290514032810175 -0.73594916548878775 9.0865065942858045 -3.3715786023160774 -2.1188285552274113 -4.9532126323701986 0.64696605018130882 0.8632822033145231;-0.77091951300479344 2.3020046211420162 -0.39980146632517527 -0.62742125485913003 -2.5753765955856531 -0.95019986219713015 -0.14538551810679967 -0.037445568842862931 -1.6064322021219297 8.3984539247504433 2.6620258882627814;-1.9939651637709317 -1.6499045971590851 -0.37501609807013292 -1.687470190242117 -8.5918759018411421 5.2600412097656113 -5.771668701778486 -7.9479922565211556 7.7712262521970414 -4.4552974887667736 -0.97346573687752391;-1.6919745819285679 -2.7507123822124302 0.39144763553444456 -1.4378539674564133 0.90295221298050587 6.9765139949708059 -2.0454978382515296 -0.087137221008838944 0.17139286238041432 -0.45612995735968864 1.5471343993232065;1.9135258597330911 -4.6508173954674694 -1.6683769652224576 3.4570023950048552 0.53107162199731794 -1.8905856851334801 -0.10409921258057472 -0.28263107470412585 1.0027068357048445 1.1794341327886246 2.1117205557115728;0.63384915535072572 1.7237802597507672 1.6633900890756084 -2.9437368951075622 4.2809308931419894 -2.9478093795236435 -0.43019455675945728 1.2652838501315429 -1.2838992889709109 2.2087462083782463 -1.3940337490188386;-1.3914945268270953 -11.285190396479971 3.517994504703144 -0.30262733790539914 -1.2701294939872472 -6.0509253314444074 -3.279344585237276 1.1130677443875692 1.0844344831825254 -2.1836108502787823 -2.7234046995621903;0.98772685153493267 2.3187287833222125 -4.1064965595360849 -3.8075354944609892 -0.52734166490834211 -6.1892701936454477 5.5854538301560606 2.3783693343008188 -1.5112968239044033 0.60998636537027273 5.2583287894985107;-0.70162751596189177 -6.4121559948373017 -4.8763348851226924 -2.8771966121901169 4.0593316724623678 5.3251388681405967 -4.3172543194269464 -1.4179060816354854 -1.7760451110611284 4.4242371414133723 -3.3276020881717825;0.91784171055562658 -0.66655809162869639 -3.2654320524069966 2.6867853654603473 2.3888843020955202 -4.6968673703913364 3.8538258785121773 1.1068653915453863 1.7025720493389287 -3.6119396330394857 -0.9517746452402932;1.8681763320250275 0.32956646934723172 -4.4672688371298985 -7.0582060965255193 2.5403231400168647 3.7320679781012762 -0.041898417017022294 -0.7838450868050697 -5.4767069477660266 -3.1654376285419783 2.0033682132232284;1.7366233781683766 -0.64704371510963543 -3.5661108107282717 4.139214260133687 -0.85274216797925229 4.9195235595920837 -3.5468561488905825 -3.1688331050779452 -1.8176088940936903 -1.65634130625565 3.5864141320030227;4.7711701611942345 3.9932523933201658 0.038807311921934429 -2.1536682122798623 -0.010044205491175535 -0.065578428006336523 -6.8117539101064386 3.7959068869685413 -2.5548752241583275 1.8926782262806616 -4.3057980739661019;-2.4570737650659535 1.3632550356360991 6.3813305645522922 -3.4259583721016145 3.9098175222334342 -1.3346776819188144 4.1638867287710593 -0.11502122454338944 6.7755175021259078 -9.8219844253714133 -6.5031844020612999;-0.93778907365097008 -1.1856020220710575 -3.570979255982718 1.2505185338765235 1.2451587421409416 0.37465317397283127 0.57552422112282309 -3.2108807029638271 -0.52614482729904233 0.66394535962769219 -0.5072517497715473;1.3092680075870784 3.1284927169869694 1.2533068120438071 1.3148191339910842 -0.91372163653738603 3.4828637845190458 1.9784333184346052 4.2222929180889075 -1.1126080438845793 2.9386165416613745 -0.86421452012922262;-3.0830146252172113 -4.7254742262962521 -5.9709632784193758 -6.2306585872934175 -5.0626614319552905 5.4095137751443731 1.2923627426468927 -1.9815489261788601 2.1071645110050752 2.6315361343808501 -3.1880157061119503;0.71308841311565374 0.78899892843309682 2.5588672567672233 1.4038837378111173 -3.793744366451488 -0.076795402780413552 -1.0074617122774332 5.1007187865927053 -0.31392370456566665 -3.6676572538975578 3.2976978022082006;-2.6022107631361293 2.6983208586774259 0.073036080320661001 1.3401607828049298 -2.8167126186329656 -4.8613072105381843 6.8581306935582065 3.8604047348486725 2.5420081629638731 1.6817092921048173 1.7398382560901076;-0.91158186781327977 0.16951804530656409 0.92119375394924408 -0.70566429713425838 -0.63821881193687169 -2.6488291959306092 4.1728884005480813 7.3234692540175921 -1.3029229832035556 -3.2501989180835085 1.463275437539588;4.6797642387001055 -1.8742563015638118 -1.4517568251685578 -1.7695976680735699 -1.9289019446870566 4.6338962794302621 -0.18745163517297966 -2.6913569842438907 -6.4931314151507182 -2.1474046391712571 -1.9698534577355502;0.092767354445626962 -4.0388603433054033 9.1389199545708344 2.1546281678497632 3.8098822306557421 -5.7330092915792061 0.34331456827346207 0.75168932487786655 -7.1859177196230313 6.1252388077400575 5.2234674743276877;-1.6376564725997764 4.5843075375904565 1.032156695467634 1.5925476195453281 4.3869833360789103 -5.4323988489924639 -3.0507448277685549 1.5441625778320001 2.6322109679029357 4.1624499242612201 -4.8551445646826394;-0.49223400098352027 -0.5488203941527956 5.9937168790596624 -0.4995838211622175 -4.0428171788831087 -4.1348768345494058 2.5790226138241756 3.026217921569804 -6.3974573198822871 0.56531686711005136 4.674284618997028;-2.8900104732158138 -2.3308518283964821 -1.5516907372636124 -3.2601588880845158 -0.34193185735900283 0.13624970412218906 -0.8065993604399051 0.43048486552129828 2.6951228006549508 1.8994598711498143 5.8060214333182332;-0.67469661954145299 1.7177399975968901 0.2006809229293321 3.1225295436537066 -3.3830324442841646 5.7894709263030526 -5.1728807294332437 -0.32501333272506794 0.6264861016221237 7.0625413007557967 -0.74155475118168801;2.5526449349334417 -3.1299552612755757 -2.3101816813595866 -0.8366153988098507 1.7747103080909448 -1.7311526471347942 1.7380972472575713 6.9096421671472106 -3.8370912650366145 -6.4866807949101002 -1.4953884282642154;3.2825125463929421 4.4925781004413992 -0.010927769551101857 -0.076741216432775719 1.4013445880427586 -2.7405186300104245 6.6127157166620689 -3.8717861924109789 -1.2927747190614098 -3.3860446083121061 1.0810617098176478;0.40832812269729063 3.9088186904553952 0.29067239324004157 2.7819356866549039 -0.22695138766744088 -0.65381107504244262 0.45092640775612969 -4.9291273797867747 1.8637485776931026 3.4774115173594282 -0.12788450150247618;-3.4282888012971466 1.7227402330467592 2.5492493881162899 4.7725381495848653 -0.029146626504206959 3.6288789762996738 1.1927423509250912 -1.5758857337090417 -6.79962685649115 4.7325986865917846 -6.6572584109681312;-2.1673964661962555 -3.5420775771349144 5.1340915538675045 2.5294518934867725 -0.49183714689219987 1.2321016928262678 -0.19541769252377056 -9.3608154630198026 -0.59609498899108149 3.4605706978809412 2.2525624687877488;-2.7967550216645796 -3.2549177221810712 4.0979571123892491 -0.039355611554764282 1.7726731923815653 0.45033112865867669 -6.9615257971389575 -3.45559399600134 0.030612879989536084 -4.3371394705273616 3.0917742012638536;3.8472281674957296 8.2622369015803958 0.41983713541275852 2.5610555489498652 -0.92190691345607556 9.2787296558391876 -0.57305387149814024 -1.1209978492024737 1.8243490539104514 -1.2552059970850209 3.468096273718984;1.9925322387041595 1.5510049997631223 -1.9264064152228992 -1.8998251192965574 -1.1898917270967848 2.7391202327015289 0.37882393740730896 3.0006592839269679 1.6998957127645642 2.5401029666628485 -1.2846655431856331;1.2983452546805789 2.2487753785711364 -2.2107444821005631 3.7087942758276609 6.6055967123746084 2.6171859130469084 0.26141268955308095 -4.7207249015824466 0.21517635036532801 0.051245861664689453 -0.58633518690930087;2.3908114730325827 -3.2511945468552024 0.88219254970127414 4.4980630651492595 5.099700030278508 -4.777043373391753 5.6052062557947044 2.0691792566614495 8.7334598843643612 2.8040311022707645 0.95680780295986245;-0.059418915511203922 -0.37869818623764723 4.2477305440278199 -1.50492107308778 -1.061324304475298 0.57165963877949377 -4.0511640261550887 -5.6288932050188567 5.3469810032784055 1.2893006527249922 4.6966064586986054;1.9825409656355391 -0.056016473904549537 -3.733282796362638 -5.91008821101323 4.4979312789085535 0.0509369333825858 2.7832170348261851 -1.3081465367203646 -2.4472473601696918 -0.79385756235685845 0.85239202722993679;-4.2218237553300044 1.1734475679786556 -2.4234248166611461 -1.3954195119580644 -1.8172222971298053 -0.66091839257505203 -5.7076621925145989 5.9832854454271729 1.5352667655495544 -0.66350809740961514 -2.0217774331750142;1.1807469903499117 -1.2704831698893155 -0.17891813810499993 0.67312319777639318 -3.6901635824012566 -2.1233318580167215 1.9325405666455711 3.4564956660245532 -1.7297701324344874 -0.78508649471292191 -1.4998243363984729;-1.002554418696878 -0.025435373104001451 1.6522217511632145 1.6404118865901709 -2.810170055940453 -2.452855025060551 1.3047472112590301 -0.3188437683635435 -0.67662352926538805 2.716841075964787 -0.36178200683105605;1.0009820140542292 -5.1775080056631664 -2.3313310000526659 -1.8147336702689583 -3.0004670645703437 -4.14340958614551 0.17326093059405376 -3.1837648277130866 5.7495176066788636 -1.8411278882147264 -1.8238950723038538;1.1282397206066908 -4.4607112984599544 -2.780789269969917 -3.924477074341616 3.3430706288120051 7.5451900383924464 -2.968366610789416 -2.6748379971258944 -2.1838617646876486 -2.9883893269399588 1.1803323673820372;0.22374967892330699 -4.1175493340695448 -1.2873199836923601 5.3667352456698012 0.61480125759184756 -1.4836387629604373 -2.085084155812222 2.5827238313302394 0.45300752557008628 -2.0099048150021601 0.85222890893473857;2.4263457403280313 3.4766342267071484 2.018876644529835 1.8113859350328465 -0.67782598025229424 3.9243853080763405 4.1625944347383665 -0.70570552492167937 0.64940285783741347 2.1250601273896184 -1.8948012614658154;-5.0920672719173004 0.075989779058691767 6.2359260213485035 3.5529453865148293 -0.67586478570421959 3.0877601983370151 1.7065334454532868 1.5033453327262944 -2.7226719086295259 1.2260053454409476 1.8555703304853535;-1.9527893383458732 -2.0477666021358942 0.066024899206014662 1.4461022791224691 -3.0033002154584825 -1.4074950488315459 -2.2070894926115772 -4.0110311157577287 -2.6180870155062186 1.5163853282015238 5.7548504939542449;-1.2044946392639195 -1.0989202804407949 7.5914451156179386 -1.9623579848696013 0.48090930274816895 -3.3127292987748942 4.0645739439777406 -3.2945019049579578 -0.14963704470226652 1.265558707001506 3.0961908338058581;0.41853637376705344 -0.39114516130837418 -1.709257126317056 -0.42996331218647121 -8.702060317454654 2.4746190828913046 1.484156249858432 3.8785927379600489 -0.40611860653238974 2.8323142663809513 3.8042646300222445;-2.5773495626015452 4.8232040526284958 -1.8164334239241653 -1.2512603847092276 1.7771292176360567 0.79204551418446023 -1.0174068445174056 -1.5458366124649914 0.37471853116836723 2.9097035566505687 -0.66262399187477683;-1.4920289658943373 7.8344088222634625 0.18398474771802215 -1.156332609729062 0.95628891406094252 -0.58291395010416258 2.1750294240512043 -0.62289500941968889 0.63407293137790421 0.048619545059131991 -3.911152600078589;0.58553095641690867 -4.9668530338788246 2.593918026793903 -1.5984487755773242 -0.95487825985247177 -2.3888961111012321 -0.041440036372539908 -2.6621137991159549 -1.8181733933118018 3.9493886899595272 0.69410776411997832;-2.6060092325769162 8.3374589998774766 4.1950685844255968 8.899099757083027 -1.7348635117397126 -4.5570366995342511 -7.5797104670737294 -4.5494240959800143 -0.66159783953376883 4.5077064983655397 -0.63828669759133949;0.25566291201000685 -3.2047488307407122 1.3196355947421476 -4.8425193716818509 -3.8872841488661498 3.9392947924177877 3.4707947007310622 -5.1504025297297966 3.0698380703767962 -1.9054874178422396 -0.68522841725644978;0.53077460500071227 2.9150672443124348 7.8974427114997567 0.16200649435136585 2.2974737060489687 -4.8869877076124695 -2.0814632330437695 -3.717104758186065 -2.7803203021711163 1.8781655500442958 -3.1139390502148929;1.5489623754945756 -1.3049617453447369 -3.0196690932804708 3.7548739816021279 -8.5972935323742234 -3.4562577111173836 -0.77326026401348935 -1.0601805354663723 1.3028363272673895 0.80728495810601475 0.2298636586249472;4.5266612641117572 -6.5149453937981372 -5.260190346028855 4.0950507316593585 5.5605649802299704 -4.0776327995153423 3.8444100764721374 7.8686206614950098 -9.7154114734749335 -0.25592074665981823 3.860432470986181;-2.082447378666529 -0.30305304316315529 -4.4232415420675535 2.4357974990444102 4.7970321304064854 -9.5900914235899855 2.967004023612783 -4.0830775943430773 5.0631281073637684 -1.6128933406754953 0.58267352172792319;3.9334542778992381 2.5229156109483557 1.4705448690992333 -0.18553298748752844 -2.5338022579195894 1.458243505458044 0.87210593196144615 1.7141014810048842 -0.027000177018397402 -0.89976853204558693 -2.1648995103334681;-3.8856055552510105 4.5025231135996915 9.0396324445224128 3.1422753714138945 -3.7838157026813528 -5.0321159294192475 1.2789436993675141 -1.8291846510585854 -5.5399953481255313 0.63023029404503339 -3.2894776405444333;-1.2944014391069936 -3.2571837050687127 2.2511267614342221 1.7111950605976163 -2.8607593351141416 1.3476618367927891 3.0405646787414748 5.7627066921620331 -1.5875889570111104 1.0788080387234422 -4.1878736865992821;1.8169414611226808 -8.8375488988574542 3.3532218508740019 -1.4976141629590274 -1.1315971839545147 -3.2428283399825037 0.38070894479330952 -2.2289460401229064 -2.5466279788989459 -1.0138559232358835 -3.0583697692773715;4.9387046752188892 -2.1277727044591153 6.1084738481780709 -1.3003637765252987 4.2808853306492161 -2.9341738613463235 5.5610046094897401 2.5234067614591575 -4.529286898625303 -4.5943218618434987 -5.6110448835326414;0.17703336952119081 2.290576488709505 0.25697033008625014 6.9015291114492232 2.0262610428119023 0.41838323892087714 4.4436133491400467 -1.4844290891645473 5.9039378118741741 -1.9030887448306584 3.4074598385804911;0.57345832026023291 -0.84091445501521445 4.4116623478768373 6.0645660732235154 2.8103608256918768 -2.6144438493490676 -2.8503312395703575 2.2030673266930609 1.99734764201253 0.90661061742065252 3.4220873580991737;-2.0522396407073544 -3.8234378743521851 1.9656202794686737 -2.2214894623147865 -5.6600971155845548 -1.9702753074020416 1.4438383340289873 -0.91551097414427351 2.1432595050885892 2.2432715896939679 3.458766791220302;0.45313685775240226 3.8391878397980013 7.7691911576581685 0.82725453586147579 2.0760634301445671 -1.7117004531919815 -3.3737311945213477 -6.7316626450174866 -1.6710969111478362 1.5560745323267857 1.0058921072611942;-0.52355569551767056 -1.5464574084205318 1.7455963256559073 1.7869708678562386 1.9983571784563956 3.8213927120239197 -1.754933726084154 -0.36959286905333866 -3.2014893677555571 4.9939043383993456 4.1289015753259957;2.2650252444130339 0.04154695662692949 -1.9771624782869692 1.5472271457044937 3.7404123169678405 -4.3041520425097328 -0.044288576109571549 2.7970126812527258 1.5095211943656637 -1.6652079039852918 3.8446362678018935;3.1009715235296826 -5.9807323917042696 5.1510304420730311 2.279642231227319 4.5780990030247084 -2.5892040895022528 1.8518154720846278 -0.76978754994906418 4.6354176445679709 3.1590021681015652 1.1234767873780687;0.92566280512642951 5.3632806236905513 -0.54096589965911779 4.4634946288413149 -1.0823168661058005 -5.8142908342894852 -0.79126617644379205 2.9722549830395439 -0.062801098300992439 -1.8054300605839864 1.4897347968173404;-1.4848311616858689 -1.0628628454596607 3.1788314513342928 0.68806583755585349 -3.0586794228778231 -0.68678175970119359 2.0688528612800345 5.414594693247766 5.6611936324730614 6.4123778103140454 1.4803129724558235;-0.68528610481759622 0.81367564999990827 0.510217836754293 1.2971674547239254 0.67793117468961461 -0.18425935351817987 1.816798680096813 -6.6332137812209782 5.5647526649394186 -1.7349333528420565 -2.4241728379877929;3.532415676233946 1.7306008920452549 4.2077736555549956 -5.3106546800873664 -3.9847857976277115 -5.7277057245476364 -7.6248010909780959 -3.5564397489681316 0.027180560371305153 -8.329378384460016 1.6144972442451859;-2.6991210954569556 -0.90162847938687407 2.0165947020933168 2.5872023480745985 -1.7780058475961329 -1.136703211425649 -5.7772711966683694 -4.170030623286908 0.71049282955480442 -0.52556022741603325 -4.2053140242272891;-0.23944635114739887 1.8573313238483664 4.9864157684933357 -4.1597524271069961 -5.7283416011267585 1.4550235533503448 0.43366652995788174 -5.6380730124872791 0.086731413461479279 -3.6662201469065687 1.6761841822621995;-3.5601926504275556 -4.0997408535603288 -1.4363936762916234 2.1543621953767071 0.85044077580830579 0.33161010311594596 -2.4895839865524994 5.7463492879089637 0.69284448015895561 -4.4056463904434171 -0.71268451178010672;2.6825094667542433 -4.4160131734079746 3.7709594977673033 -1.4028392716138187 -0.41769652029736748 1.2719162474549752 -1.0411017412121437 -4.5505241437330932 -2.5533008845828107 2.7669168515842903 0.53771826260688405;-2.2032956065325187 1.3313103030527214 -0.096500317661328425 2.0655374804707054 0.18055377634516445 -3.2835431563151349 1.6418378152876432 0.96700766898786261 0.98821802844757445 -0.01245657836455607 -1.0995450388801584;0.64100466993793237 -2.6462122688069694 2.1770677740742101 -0.64912629728628246 1.0830570526556473 -0.52656799884697902 1.2534832886110931 1.573618334763456 1.6993174534890381 -2.8316147285228004 1.2418430901874822;-2.263945721105602 4.278264509249226 -4.6465340413168379 -0.88986853080337036 0.32788932493383249 -0.44142010789621877 -1.7687526315016464 -2.5333251051080357 1.3445804325477095 -0.29872748217721601 -3.3984711991008179;1.3755631233636969 -3.9031222108136263 2.9661109283562443 -5.9243066783512486 -2.2714656316273958 -3.7417255908917206 -1.7325170438126807 2.2667802994473938 -3.8457717151822695 1.2398542097492373 9.0350462349972975;0.83588996474729915 -3.8860444396146048 -1.6107246662231236 -2.1603208908972293 4.9023688026947143 1.5505202575913115 3.9714267538714347 -4.7651515343932083 1.8255848208697045 -4.1578600253406988 4.0931937308572159;-0.27753105544705231 -1.8180484698997497 1.4380114431274027 3.5624367289793439 -1.8488932699978415 6.8408890742891009 -7.2209975814713117 0.35970301746224087 -0.27176487787236814 4.0983246969478477 -0.70544588860158841;0.88088933116451051 3.6759548707520158 1.863441902434583 -6.3189718018633316 -1.5748934178501928 1.5327467512788966 0.5781584188358021 5.6880069570198204 -1.8537059834997529 -0.46832774002202537 1.733883670654091;-0.27867504897743944 -6.1722182516231729 4.9197074822851334 -3.4522490113940782 1.0344734901390251 -6.6652773045850218 -1.3096945334393257 -3.3037365042815496 -3.0608179514834908 -7.0211931770936102 1.9131501578952721;-0.74239639975458216 1.645214579415669 3.6849112805166011 -0.79504816319146265 -2.4748184884815738 1.6331743625990816 -4.0783984934180886 1.3642804495488241 -8.3816538075407081 3.4446366502396959 3.5525765011871964;1.1149561984065877 -0.39225704632999359 1.619720891492072 5.4626698776328917 -0.52036969698708102 -2.0059682706781063 -0.96992384395260622 1.0388402022994316 -2.5959301028402577 -1.8330249158091783 -4.2828234654389199;0.72292026121146957 0.75010023025130212 2.1660559899188727 -8.8264747084655557 -0.23564365686931776 -2.2987362002689693 1.5318255285077105 4.4205059389115879 4.4482602188181604 4.373714767655712 3.1358729800839589;-0.49185454958293273 0.74530984788620025 -1.899983812276427 1.59797769501892 0.73933988000981532 -4.1630976837418103 -2.482748077715915 -5.6992537126603624 -2.9077146466097408 1.0961666032371093 3.4467015555857166;0.52679320076801395 -1.5360717734212683 0.73474880894434658 8.7686260033759389 -3.2812296368465406 -2.9882834974540211 3.0730447142668815 0.13923131546652878 1.4608527977776808 7.4185981126325471 0.9844177427971943;-2.0920854092505619 2.4564375081591088 1.5896156396989118 2.8597549919756435 -2.2263586010073158 -1.7465918686433415 3.6497040538344878 -3.6757835791975877 0.15332523578648033 0.49554063430256129 -3.7058718665783892;-1.3118011694813096 2.7452679062576699 5.46792478634943 1.0255465362608434 1.5833503926119781 1.7008092439521465 1.8186553279725453 2.1298907201410686 2.8104786268555246 -2.1844584832079539 -2.854811618970643];

% Layer 2
b2 = -1.0466648574673958;
LW2_1 = [-0.10681091969474543 -0.11509871688012578 -0.067605410393195564 0.14457599181806149 0.15228727403434639 -0.15046087958135598 -0.092255294640117086 0.089367387943980095 0.13117667334481717 0.028842683265395835 -0.096880621411854287 0.13601415412385068 0.091413315673212023 -0.041023801239448578 0.031839905002642478 0.034863998324517725 -0.040592336029861821 0.035812388885789442 -0.040031821187543282 0.19811020130759491 -0.042960888048598413 0.14443688076834227 0.14660797605018649 0.040252682040864768 -0.16090838389828299 -0.036624626362206807 0.075522685103323189 -0.054686492280037184 0.048170995524317244 -0.033080656943981761 -0.079121352809691292 0.29583521939764795 -0.066537738497418189 -0.17164341648714973 0.023576752895405853 -0.22616086774659974 0.062034008230098581 0.15295307266697084 -0.040020959528494535 -0.020839193989811777 -1.4314740680567173 0.080171378599679891 0.025746235125201654 0.086892467174828333 0.046549009054258621 0.060261979538524066 0.12727516748632545 -0.20113544278727882 -0.044976287431322128 -0.075333516376980936 -0.086981397642173566 -0.087489111148808224 0.077841738567229452 -0.079761104453935625 0.029079120672502574 0.023239952698054081 0.1245424781809214 0.20642259773219265 -0.42385350040662406 0.024367373455237103 0.031876230894184239 -0.082129376918579106 0.041985011386220149 0.044765298266665102 -0.036440829892960581 0.20542494945230388 -0.10787792828989437 0.064400435579962639 0.25355446890287264 0.043405505442468094 0.023560186717090831 0.076026052025663982 -0.054396755228288518 0.0372755105208935 -0.070707948398557027 0.16898089000313854 0.023982007598765859 0.068558199179080972 0.026927258146599863 0.089734067974160073 -0.020072569321785558 -0.07147868046224061 0.034416391080908694 -0.075639885810560178 -0.097761921491303333 -0.49683344033649024 0.15344986270250963 0.055237354107457337 0.064071803285960877 -0.056941804114421471 0.064118601191756733 -0.10598700946256635 -0.027921700648307912 0.036892869695280925 0.14022787065854553 -0.054688647733789952 0.057091460395044626 0.049417552466902555 -0.060891668640105055 -0.039536302913310228];

% Output 1
y1_step1_ymin = -1;
y1_step1_gain = 0.000227686703096539;
y1_step1_xoffset = 5258;

% ===== SIMULATION ========

% Dimensions
Q = size(x1,2); % samples

% Input 1
xp1 = mapminmax_apply(x1,x1_step1_gain,x1_step1_xoffset,x1_step1_ymin);

% Layer 1
a1 = tansig_apply(repmat(b1,1,Q) + IW1_1*xp1);

% Layer 2
a2 = repmat(b2,1,Q) + LW2_1*a1;

% Output 1
y1 = mapminmax_reverse(a2,y1_step1_gain,y1_step1_xoffset,y1_step1_ymin);
end

% ===== MODULE FUNCTIONS ========

% Map Minimum and Maximum Input Processing Function
function y = mapminmax_apply(x,settings_gain,settings_xoffset,settings_ymin)
y = bsxfun(@minus,x,settings_xoffset);
y = bsxfun(@times,y,settings_gain);
y = bsxfun(@plus,y,settings_ymin);
end

% Sigmoid Symmetric Transfer Function
function a = tansig_apply(n)
a = 2 ./ (1 + exp(-2*n)) - 1;
end

% Map Minimum and Maximum Output Reverse-Processing Function
function x = mapminmax_reverse(y,settings_gain,settings_xoffset,settings_ymin)
x = bsxfun(@minus,y,settings_ymin);
x = bsxfun(@rdivide,x,settings_gain);
x = bsxfun(@plus,x,settings_xoffset);
end
